#! FIELDS refcv.morethan b1.bias der_refcv.morethan
#! SET min_refcv.morethan 0.0
#! SET max_refcv.morethan 256.0
#! SET nbins_refcv.morethan  301
#! SET periodic_refcv.morethan false
    0.000000000  187.637287081  -61.862625949
    0.853333333  228.575929768  -35.653578993
    1.706666667  250.798321260  -17.593217561
    2.560000000  260.304788683   -5.536298207
    3.413333333  261.477657389    2.180968553
    4.266666667  257.451401900    6.833527804
    5.120000000  250.410485631    9.384741318
    5.973333333  241.827027275   10.550500757
    6.826666667  232.648672806   10.852120005
    7.680000000  223.445513832   10.659689593
    8.533333333  214.523551388   10.227358833
    9.386666667  206.011037693    9.721818177
   10.240000000  197.923016992    9.245083066
   11.093333333  190.208512875    8.852529063
   11.946666667  182.784057186    8.566994365
   12.800000000  175.556610517    8.389648132
   13.653333333  168.438373351    8.308219749
   14.506666667  161.355518493    8.303093731
   15.360000000  154.252479224    8.351696065
   16.213333333  147.093094203    8.431529170
   17.066666667  139.859631348    8.522153170
   17.920000000  132.550481352    8.606359866
   18.773333333  125.177120536    8.670741610
   19.626666667  117.760786738    8.705819574
   20.480000000  110.329185691    8.705863683
   21.333333333  102.913444365    8.668509314
   22.186666667   95.545448181    8.594252899
   23.040000000   88.255637304    8.485889442
   23.893333333   81.071290452    8.347939071
   24.746666667   74.015290189    8.186096721
   25.600000000   67.105339307    8.006728389
   26.453333333   60.353581588    7.816428950
   27.306666667   53.766570530    7.621649732
   28.160000000   47.345524877    7.428398860
   29.013333333   41.086809029    7.242013414
   29.866666667   34.982578533    7.066999549
   30.720000000   29.021535031    6.906934714
   31.573333333   23.189740673    6.764424796
   32.426666667   17.471448452    6.641108298
   33.280000000   11.849911819    6.537699382
   34.133333333    6.308143860    6.454061698
   34.986666667    0.829603097    6.389305281
   35.840000000   -4.601210656    6.341899346
   36.693333333   -9.998261151    6.309794496
   37.546666667  -15.373586797    6.290548626
   38.400000000  -20.737018995    6.281451626
   39.253333333  -26.096004902    6.279644807
   40.106666667  -31.455528647    6.282231762
   40.960000000  -36.818122591    6.286378169
   41.813333333  -42.183958360    6.289398729
   42.666666667  -47.551006160    6.288830113
   43.520000000  -52.915250138    6.282489334
   44.373333333  -58.270947317    6.268517523
   45.226666667  -63.610917768    6.245409458
   46.080000000  -68.926854156    6.212029611
   46.933333333  -74.209639588    6.167615726
   47.786666667  -79.449663630    6.111771182
   48.640000000  -84.637127509    6.044447540
   49.493333333  -89.762330776    5.965918779
   50.346666667  -94.815932990    5.876748784
   51.200000000  -99.789185316    5.777753612
   52.053333333 -104.674128260    5.669960086
   52.906666667 -109.463753001    5.554562144
   53.760000000 -114.152125016    5.432876292
   54.613333333 -118.734469744    5.306297415
   55.466666667 -123.207221091    5.176256020
   56.320000000 -127.568034413    5.044177885
   57.173333333 -131.815766367    4.911446902
   58.026666667 -135.950424675    4.779371782
   58.880000000 -139.973091289    4.649157100
   59.733333333 -143.885822840    4.521879049
   60.586666667 -147.691532481    4.398466097
   61.440000000 -151.393857346    4.279684637
   62.293333333 -154.997015890    4.166129576
   63.146666667 -158.505659248    4.058219730
   64.000000000 -161.924720637    3.956197755
   64.853333333 -165.259266512    3.860134305
   65.706666667 -168.514352951    3.769936028
   66.560000000 -171.694890323    3.685356922
   67.413333333 -174.805518930    3.606012614
   68.266666667 -177.850497880    3.531396996
   69.120000000 -180.833608992    3.460900742
   69.973333333 -183.758077102    3.393831143
   70.826666667 -186.626507686    3.329432764
   71.680000000 -189.440842274    3.266908415
   72.533333333 -192.202331732    3.205439967
   73.386666667 -194.911527071    3.144208577
   74.240000000 -197.568287138    3.082413920
   75.093333333 -200.171802154    3.019292091
   75.946666667 -202.720631855    2.954131854
   76.800000000 -205.212756711    2.886289010
   77.653333333 -207.645640515    2.815198663
   78.506666667 -210.016302505    2.740385266
   79.360000000 -212.321397066    2.661470325
   80.213333333 -214.557298997    2.578177748
   81.066666667 -216.720192328    2.490336818
   81.920000000 -218.806160694    2.397882873
   82.773333333 -220.811277323    2.300855749
   83.626666667 -222.731692811    2.199396163
   84.480000000 -224.563718956    2.093740153
   85.333333333 -226.303907122    1.984211807
   86.186666667 -227.949119716    1.871214474
   87.040000000 -229.496593616    1.755220695
   87.893333333 -230.943994546    1.636761113
   88.746666667 -232.289461632    1.516412599
   89.600000000 -233.531641597    1.394785860
   90.453333333 -234.669712242    1.272512795
   91.306666667 -235.703395126    1.150233827
   92.160000000 -236.632957500    1.028585472
   93.013333333 -237.459203831    0.908188355
   93.866666667 -238.183457353    0.789635895
   94.720000000 -238.807532320    0.673483835
   95.573333333 -239.333697743    0.560240785
   96.426666667 -239.764633546    0.450359933
   97.280000000 -240.103380177    0.344232015
   98.133333333 -240.353282810    0.242179659
   98.986666667 -240.517931302    0.144453138
   99.840000000 -240.601097169    0.051227591
  100.693333333 -240.606668796   -0.037398301
  101.546666667 -240.538586148   -0.121402195
  102.400000000 -240.400776179   -0.200836556
  103.253333333 -240.197090122   -0.275825812
  104.106666667 -239.931243747   -0.346562245
  104.960000000 -239.606761611   -0.413300763
  105.813333333 -239.226926223   -0.476352643
  106.666666667 -238.794732919   -0.536078415
  107.520000000 -238.312851139   -0.592880012
  108.373333333 -237.783592648   -0.647192360
  109.226666667 -237.208887120   -0.699474561
  110.080000000 -236.590265358   -0.750200851
  110.933333333 -235.928850270   -0.799851484
  111.786666667 -235.225355591   -0.848903716
  112.640000000 -234.480092207   -0.897823044
  113.493333333 -233.692981781   -0.947054854
  114.346666667 -232.863577291   -0.997016619
  115.200000000 -231.991089946   -1.048090769
  116.053333333 -231.074421846   -1.100618353
  116.906666667 -230.112203692   -1.154893592
  117.760000000 -229.102836723   -1.211159400
  118.613333333 -228.044538045   -1.269603941
  119.466666667 -226.935388441   -1.330358254
  120.320000000 -225.773381733   -1.393494995
  121.173333333 -224.556474754   -1.459028272
  122.026666667 -223.282636981   -1.526914582
  122.880000000 -221.949898921   -1.597054806
  123.733333333 -220.556398362   -1.669297214
  124.586666667 -219.100423637   -1.743441418
  125.440000000 -217.580453163   -1.819243177
  126.293333333 -215.995190522   -1.896419974
  127.146666667 -214.343594522   -1.974657242
  128.000000000 -212.624903681   -2.053615130
  128.853333333 -210.838654778   -2.132935670
  129.706666667 -208.984695144   -2.212250223
  130.560000000 -207.063188546   -2.291187057
  131.413333333 -205.074614581   -2.369378925
  132.266666667 -203.019761669   -2.446470495
  133.120000000 -200.899713803   -2.522125509
  133.973333333 -198.715831359   -2.596033535
  134.826666667 -196.469726368   -2.667916180
  135.680000000 -194.163232744   -2.737532669
  136.533333333 -191.798372062   -2.804684680
  137.386666667 -189.377315567   -2.869220343
  138.240000000 -186.902343147   -2.931037331
  139.093333333 -184.375800076   -2.990084998
  139.946666667 -181.800052359   -3.046365499
  140.800000000 -179.177441561   -3.099933897
  141.653333333 -176.510239979   -3.150897230
  142.506666667 -173.800607055   -3.199412564
  143.360000000 -171.050547860   -3.245684063
  144.213333333 -168.261874497   -3.289959120
  145.066666667 -165.436171165   -3.332523629
  145.920000000 -162.574763611   -3.373696467
  146.773333333 -159.678693584   -3.413823295
  147.626666667 -156.748698828   -3.453269787
  148.480000000 -153.785199061   -3.492414414
  149.333333333 -150.788288250   -3.531640910
  150.186666667 -147.757733400   -3.571330568
  151.040000000 -144.692979937   -3.611854511
  151.893333333 -141.593163648   -3.653566084
  152.746666667 -138.457129004   -3.696793521
  153.600000000 -135.283453575   -3.741833030
  154.453333333 -132.070478110   -3.788942438
  155.306666667 -128.816341766   -3.838335534
  156.160000000 -125.519021808   -3.890177224
  157.013333333 -122.176377064   -3.944579618
  157.866666667 -118.786194287   -4.001599140
  158.720000000 -115.346236516   -4.061234741
  159.573333333 -111.854292479   -4.123427265
  160.426666667 -108.308226012   -4.188060015
  161.280000000 -104.706024495   -4.254960541
  162.133333333 -101.045845234   -4.323903618
  162.986666667  -97.326058808   -4.394615407
  163.840000000  -93.545288372   -4.466778737
  164.693333333  -89.702444010   -4.540039423
  165.546666667  -85.796751291   -4.614013519
  166.400000000  -81.827773269   -4.688295394
  167.253333333  -77.795425300   -4.762466469
  168.106666667  -73.699982180   -4.836104469
  168.960000000  -69.542077227   -4.908792993
  169.813333333  -65.322693127   -4.980131228
  170.666666667  -61.043144508   -5.049743590
  171.520000000  -56.705052388   -5.117289089
  172.373333333  -52.310310823   -5.182470206
  173.226666667  -47.861046268   -5.245041069
  174.080000000  -43.359570336   -5.304814717
  174.933333333  -38.808326804   -5.361669269
  175.786666667  -34.209833905   -5.415552802
  176.640000000  -29.566623053   -5.466486786
  177.493333333  -24.881175315   -5.514567924
  178.346666667  -20.155857026   -5.559968295
  179.200000000  -15.392856036   -5.602933712
  180.053333333  -10.594120145   -5.643780248
  180.906666667   -5.761299287   -5.682888923
  181.760000000   -0.895693017   -5.720698573
  182.613333333    4.001795162   -5.757696995
  183.466666667    8.930695213   -5.794410454
  184.320000000   13.890998391   -5.831391737
  185.173333333   18.883174324   -5.869206947
  186.026666667   23.908176371   -5.908421285
  186.880000000   28.967434512   -5.949584098
  187.733333333   34.062835289   -5.993213528
  188.586666667   39.196688590   -6.039781098
  189.440000000   44.371681395   -6.089696634
  190.293333333   49.590818942   -6.143293904
  191.146666667   54.857354078   -6.200817400
  192.000000000   60.174705980   -6.262410665
  192.853333333   65.546369712   -6.328106585
  193.706666667   70.975818482   -6.397820035
  194.560000000   76.466400753   -6.471343246
  195.413333333   82.021234682   -6.548344212
  196.266666667   87.643102605   -6.628368433
  197.120000000   93.334348498   -6.710844190
  197.973333333   99.096781509   -6.795091501
  198.826666667  104.931588724   -6.880334822
  199.680000000  110.839260362   -6.965719440
  200.533333333  116.819530474   -7.050331422
  201.386666667  122.871336119   -7.133220872
  202.240000000  128.992797641   -7.213428096
  203.093333333  135.181222363   -7.290012208
  203.946666667  141.433133504   -7.362081529
  204.800000000  147.744325547   -7.428825053
  205.653333333  154.109946607   -7.489544103
  206.506666667  160.524607555   -7.543683223
  207.360000000  166.982516804   -7.590859235
  208.213333333  173.477638700   -7.630887322
  209.066666667  180.003872481   -7.663802946
  209.920000000  186.555247726   -7.689878381
  210.773333333  193.126131194   -7.709632653
  211.626666667  199.711438903   -7.723833726
  212.480000000  206.306846383   -7.733491849
  213.333333333  212.908989150   -7.739843142
  214.186666667  219.515644726   -7.744322671
  215.040000000  226.125887018   -7.748526517
  215.893333333  232.740203553   -7.754162655
  216.746666667  239.360566070   -7.762990817
  217.600000000  245.990445300   -7.776751961
  218.453333333  252.634761495   -7.797088448
  219.306666667  259.299763441   -7.825456551
  220.160000000  265.992830316   -7.863033564
  221.013333333  272.722192968   -7.910622347
  221.866666667  279.496573868   -7.968556824
  222.720000000  286.324748293   -8.036612600
  223.573333333  293.215033082   -8.113927464
  224.426666667  300.174713671   -8.198937126
  225.280000000  307.209424828   -8.289332005
  226.133333333  314.322505681   -8.382041186
  226.986666667  321.514354853   -8.473249788
  227.840000000  328.781816859   -8.558455819
  228.693333333  336.117635862   -8.632572065
  229.546666667  343.510017254   -8.690077566
  230.400000000  350.942340800   -8.725221689
  231.253333333  358.393070715   -8.732281526
  232.106666667  365.835907436   -8.705870238
  232.960000000  373.240222080   -8.641289779
  233.813333333  380.571806824   -8.534916076
  234.666666667  387.793961400   -8.384597843
  235.520000000  394.868916341   -8.190041636
  236.373333333  401.759565852   -7.953145149
  237.226666667  408.431445406   -7.678227774
  238.080000000  414.854839178   -7.372091772
  238.933333333  421.006837747   -7.043828544
  239.786666667  426.873084235   -6.704262059
  240.640000000  432.448843890   -6.364894853
  241.493333333  437.738904269   -6.036190733
  242.346666667  442.755656387   -5.724991563
  243.200000000  447.514516483   -5.430822728
  244.053333333  452.025617944   -5.140792136
  244.906666667  456.280427159   -4.822730151
  245.760000000  460.231608526   -4.416151539
  246.613333333  463.764074677   -3.820544464
  247.466666667  466.654699240   -2.880404411
  248.320000000  468.517631222   -1.366331487
  249.173333333  468.731521259    1.048603639
  250.026666667  466.344238081    4.818148402
  250.880000000  459.949804947   10.558880377
  251.733333333  447.531304995   19.094175866
  252.586666667  426.262374690   31.507553542
  253.440000000  392.258606799   49.207020172
  254.293333333  340.268698038   74.002279465
  255.146666667  263.293478610  108.196927385
  256.000000000  152.119026100  154.698050574
