#! FIELDS refcv.morethan b1.bias der_refcv.morethan
#! SET min_refcv.morethan 0.0
#! SET max_refcv.morethan 256.0
#! SET nbins_refcv.morethan  301
#! SET periodic_refcv.morethan false
    0.000000000  259.200034549  -51.172732454
    0.853333333  293.345728580  -30.035779487
    1.706666667  312.217838536  -15.088107203
    2.560000000  320.416102148   -4.791947144
    3.413333333  321.372417643    2.062954219
    4.266666667  317.603928950    6.419483045
    5.120000000  310.918967228    9.003738136
    5.973333333  302.583436969   10.367365490
    6.826666667  293.454175837   10.922810589
    7.680000000  284.084886638   10.972509296
    8.533333333  274.809423955   10.732911030
    9.386666667  265.806504764   10.354114400
   10.240000000  257.149290530    9.935794405
   11.093333333  248.842747858    9.540010533
   11.946666667  240.851226545    9.201405466
   12.800000000  233.118289565    8.935233676
   13.653333333  225.580481773    8.743597062
   14.506666667  218.176426074    8.620210103
   15.360000000  210.852381592    8.553968991
   16.213333333  203.565182442    8.531557213
   17.066666667  196.283293366    8.539283437
   17.920000000  188.986565256    8.564315686
   18.773333333  181.665145692    8.595448216
   19.626666667  174.317893661    8.623513702
   20.480000000  166.950560442    8.641532911
   21.333333333  159.573927663    8.644676553
   22.186666667  152.202036301    8.630099125
   23.040000000  144.850594882    8.596692011
   23.893333333  137.535619445    8.544792527
   24.746666667  130.272330389    8.475876780
   25.600000000  123.074310776    8.392256940
   26.453333333  115.952915692    8.296797532
   27.306666667  108.916911974    8.192660521
   28.160000000  101.972320950    8.083085108
   29.013333333   95.122433176    7.971205089
   29.866666667   88.367962740    7.859904308
   30.720000000   81.707309042    7.751708974
   31.573333333   75.136895595    7.648714344
   32.426666667   68.651557890    7.552542422
   33.280000000   62.244955498    7.464326777
   34.133333333   55.909987028    7.384720334
   34.986666667   49.639190138    7.313921923
   35.840000000   43.425112348    7.251717463
   36.693333333   37.260641868    7.197531912
   37.546666667   31.139290780    7.150488380
   38.400000000   25.055425881    7.109471210
   39.253333333   19.004445017    7.073190209
   40.106666667   12.982898980    7.040243636
   40.960000000    6.988560902    7.009177974
   41.813333333    1.020446591    6.978542918
   42.666666667   -4.921209583    6.946940391
   43.520000000  -10.835017771    6.913066756
   44.373333333  -16.718528661    6.875747725
   45.226666667  -22.568356078    6.833965745
   46.080000000  -28.380319738    6.786879884
   46.933333333  -34.149601868    6.733838478
   47.786666667  -39.870911658    6.674384932
   48.640000000  -45.538651942    6.608257262
   49.493333333  -51.147083053    6.535382020
   50.346666667  -56.690479356    6.455863344
   51.200000000  -62.163274629    6.369967929
   52.053333333  -67.560193172    6.278106698
   52.906666667  -72.876364151    6.180814000
   53.760000000  -78.107417410    6.078725097
   54.613333333  -83.249559611    5.972552689
   55.466666667  -88.299630176    5.863063158
   56.320000000  -93.255137067    5.751053178
   57.173333333  -98.114272961    5.637327225
   58.026666667 -102.875912794    5.522676493
   58.880000000 -107.539594054    5.407859603
   59.733333333 -112.105481509    5.293585449
   60.586666667 -116.574318287    5.180498414
   61.440000000 -120.947365420    5.069166134
   62.293333333 -125.226332079    4.960069919
   63.146666667 -129.413298765    4.853597843
   64.000000000 -133.510635751    4.750040490
   64.853333333 -137.520918991    4.649589264
   65.706666667 -141.446845631    4.552337123
   66.560000000 -145.291151126    4.458281569
   67.413333333 -149.056529789    4.367329673
   68.266666667 -152.745560421    4.279304902
   69.120000000 -156.360638432    4.193955477
   69.973333333 -159.903915665    4.110964010
   70.826666667 -163.377248872    4.029958104
   71.680000000 -166.782157561    3.950521670
   72.533333333 -170.119791694    3.872206654
   73.386666667 -173.390909486    3.794544926
   74.240000000 -176.595865310    3.717060056
   75.093333333 -179.734607532    3.639278763
   75.946666667 -182.806685889    3.560741798
   76.800000000 -185.811267848    3.481014085
   77.653333333 -188.747163241    3.399693942
   78.506666667 -191.612856323    3.316421254
   79.360000000 -194.406544321    3.230884470
   80.213333333 -197.126181415    3.142826357
   81.066666667 -199.769527082    3.052048441
   81.920000000 -202.334197661    2.958414119
   82.773333333 -204.817719992    2.861850423
   83.626666667 -207.217586013    2.762348482
   84.480000000 -209.531307193    2.659962701
   85.333333333 -211.756467746    2.554808747
   86.186666667 -213.890775650    2.447060409
   87.040000000 -215.932110539    2.336945445
   87.893333333 -217.878567658    2.224740524
   88.746666667 -219.728497159    2.110765390
   89.600000000 -221.480538142    1.995376390
   90.453333333 -223.133646940    1.878959492
   91.306666667 -224.687119280    1.761922946
   92.160000000 -226.140606092    1.644689728
   93.013333333 -227.494122809    1.527689908
   93.866666667 -228.748052194    1.411353082
   94.720000000 -229.903140760    1.296100997
   95.573333333 -230.960489037    1.182340484
   96.426666667 -231.921535979    1.070456832
   97.280000000 -232.788037938    0.960807684
   98.133333333 -233.562042684    0.853717552
   98.986666667 -234.245859044    0.749473034
   99.840000000 -234.842022768    0.648318784
  100.693333333 -235.353259306    0.550454286
  101.546666667 -235.782444181    0.456031465
  102.400000000 -236.132561695    0.365153156
  103.253333333 -236.406662684    0.277872428
  104.106666667 -236.607822066    0.194192751
  104.960000000 -236.739096884    0.114068991
  105.813333333 -236.803485533    0.037409185
  106.666666667 -236.803888822   -0.035922947
  107.520000000 -236.743073467   -0.106104813
  108.373333333 -236.623638581   -0.173351155
  109.226666667 -236.447985619   -0.237909724
  110.080000000 -236.218292225   -0.300056503
  110.933333333 -235.936490301   -0.360090581
  111.786666667 -235.604248584   -0.418328750
  112.640000000 -235.222959905   -0.475099933
  113.493333333 -234.793733245   -0.530739536
  114.346666667 -234.317390612   -0.585583813
  115.200000000 -233.794468687   -0.639964337
  116.053333333 -233.225225114   -0.694202663
  116.906666667 -232.609649224   -0.748605277
  117.760000000 -231.947476931   -0.803458885
  118.613333333 -231.238209470   -0.859026138
  119.466666667 -230.481135579   -0.915541836
  120.320000000 -229.675356698   -0.973209663
  121.173333333 -228.819814703   -1.032199519
  122.026666667 -227.913321661   -1.092645444
  122.880000000 -226.954591088   -1.154644203
  123.733333333 -225.942270132   -1.218254499
  124.586666667 -224.874972155   -1.283496851
  125.440000000 -223.751309140   -1.350354113
  126.293333333 -222.569923386   -1.418772614
  127.146666667 -221.329517977   -1.488663905
  128.000000000 -220.028885511   -1.559907057
  128.853333333 -218.666934653   -1.632351484
  129.706666667 -217.242714070   -1.705820221
  130.560000000 -215.755433395   -1.780113618
  131.413333333 -214.204480888   -1.855013357
  132.266666667 -212.589437553   -1.930286754
  133.120000000 -210.910087489   -2.005691246
  133.973333333 -209.166424357   -2.080979007
  134.826666667 -207.358653892   -2.155901598
  135.680000000 -205.487192441   -2.230214592
  136.533333333 -203.552661607   -2.303682089
  137.386666667 -201.555879112   -2.376081040
  138.240000000 -199.497846065   -2.447205332
  139.093333333 -197.379730885   -2.516869543
  139.946666667 -195.202850174   -2.584912324
  140.800000000 -192.968646880   -2.651199349
  141.653333333 -190.678666152   -2.715625784
  142.506666667 -188.334529298   -2.778118239
  143.360000000 -185.937906320   -2.838636171
  144.213333333 -183.490487481   -2.897172722
  145.066666667 -180.993954418   -2.953754967
  145.920000000 -178.449951281   -3.008443580
  146.773333333 -175.860056414   -3.061331927
  147.626666667 -173.225755043   -3.112544587
  148.480000000 -170.548413469   -3.162235343
  149.333333333 -167.829255181   -3.210584661
  150.186666667 -165.069339329   -3.257796716
  151.040000000 -162.269541910   -3.304095996
  151.893333333 -159.430540014   -3.349723559
  152.746666667 -156.552799384   -3.394932985
  153.600000000 -153.636565547   -3.439986112
  154.453333333 -150.681858637   -3.485148608
  155.306666667 -147.688472054   -3.530685468
  156.160000000 -144.655974959   -3.576856504
  157.013333333 -141.583718604   -3.623911901
  157.866666667 -138.470846387   -3.672087928
  158.720000000 -135.316307487   -3.721602865
  159.573333333 -132.118873850   -3.772653218
  160.426666667 -128.877160258   -3.825410296
  161.280000000 -125.589647147   -3.880017200
  162.133333333 -122.254705792   -3.936586291
  162.986666667 -118.870625445   -3.995197164
  163.840000000 -115.435641954   -4.055895187
  164.693333333 -111.947967394   -4.118690618
  165.546666667 -108.405820184   -4.183558331
  166.400000000 -104.807455187   -4.250438144
  167.253333333 -101.151193264   -4.319235768
  168.106666667  -97.435449761   -4.389824343
  168.960000000  -93.658761442   -4.462046554
  169.813333333  -89.819811384   -4.535717285
  170.666666667  -85.917451385   -4.610626769
  171.520000000  -81.950721502   -4.686544184
  172.373333333  -77.918866339   -4.763221623
  173.226666667  -73.821347822   -4.840398390
  174.080000000  -69.657854194   -4.917805517
  174.933333333  -65.428305087   -4.995170443
  175.786666667  -61.132852563   -5.072221764
  176.640000000  -56.771878106   -5.148693956
  177.493333333  -52.345985622   -5.224332001
  178.346666667  -47.855990568   -5.298895804
  179.200000000  -43.302905431   -5.372164341
  180.053333333  -38.687921811   -5.443939430
  180.906666667  -34.012389473   -5.514049074
  181.760000000  -29.277792754   -5.582350290
  182.613333333  -24.485724797   -5.648731369
  183.466666667  -19.637860122   -5.713113525
  184.320000000  -14.735926053   -5.775451883
  185.173333333   -9.781673606   -5.835735795
  186.026666667   -4.776848385   -5.893988460
  186.880000000    0.276837887   -5.950265869
  187.733333333    5.377734668   -6.004655067
  188.586666667   10.524278122   -6.057271796
  189.440000000   15.715014395   -6.108257538
  190.293333333   20.948620131   -6.157776044
  191.146666667   26.223919825   -6.206009406
  192.000000000   31.539899666   -6.253153761
  192.853333333   36.895717594   -6.299414737
  193.706666667   42.290709390   -6.345002725
  194.560000000   47.724390703   -6.390128105
  195.413333333   53.196455020   -6.434996527
  196.266666667   58.706767673   -6.479804373
  197.120000000   64.255356097   -6.524734500
  197.973333333   69.842396599   -6.569952375
  198.826666667   75.468198051   -6.615602706
  199.680000000   81.133182929   -6.661806635
  200.533333333   86.837866242   -6.708659583
  201.386666667   92.582832902   -6.756229785
  202.240000000   98.368714159   -6.804557547
  203.093333333  104.196163706   -6.853655224
  203.946666667  110.065834080   -6.903507916
  204.800000000  115.978353930   -6.954074816
  205.653333333  121.934306696   -7.005291140
  206.506666667  127.934211153   -7.057070549
  207.360000000  133.978504181   -7.109307920
  208.213333333  140.067525991   -7.161882321
  209.066666667  146.201507930   -7.214660021
  209.920000000  152.380562790   -7.267497344
  210.773333333  158.604677426   -7.320243183
  211.626666667  164.873707299   -7.372740953
  212.480000000  171.187372381   -7.424829826
  213.333333333  177.545253738   -7.476345041
  214.186666667  183.946789946   -7.527117172
  215.040000000  190.391272374   -7.576970221
  215.893333333  196.877838343   -7.625718506
  216.746666667  203.405461095   -7.673162333
  217.600000000  209.972935584   -7.719082540
  218.453333333  216.578859194   -7.763234099
  219.306666667  223.221606675   -7.805339019
  220.160000000  229.899298861   -7.845078938
  221.013333333  236.609765098   -7.882087873
  221.866666667  243.350499745   -7.915945695
  222.720000000  250.118613668   -7.946173015
  223.573333333  256.910782211   -7.972228197
  224.426666667  263.723191825   -7.993507306
  225.280000000  270.551488168   -8.009347750
  226.133333333  277.390729157   -8.019036353
  226.986666667  284.235347011   -8.021822426
  227.840000000  291.079123706   -8.016936165
  228.693333333  297.915184404   -8.003612331
  229.546666667  304.736013147   -7.981118597
  230.400000000  311.533494287   -7.948787215
  231.253333333  318.298981562   -7.906047645
  232.106666667  325.023394153   -7.852456447
  232.960000000  331.697335274   -7.787719112
  233.813333333  338.311223362   -7.711696348
  234.666666667  344.855418525   -7.624384732
  235.520000000  351.320316942   -7.525858418
  236.373333333  357.696372912   -7.416154623
  237.226666667  363.973991567   -7.295080884
  238.080000000  370.143214093   -7.161916336
  238.933333333  376.193090808   -7.014972466
  239.786666667  382.110604617   -6.850970692
  240.640000000  387.878967006   -6.664184612
  241.493333333  393.475059596   -6.445283544
  242.346666667  398.865734722   -6.179800925
  243.200000000  404.002616997   -5.846135901
  244.053333333  408.814962218   -5.412978810
  244.906666667  413.200028221   -4.836030852
  245.760000000  417.010291817   -4.053864780
  246.613333333  420.036704033   -2.982746498
  247.466666667  421.987009280   -1.510206603
  248.320000000  422.457959381    0.512884290
  249.173333333  420.900026597    3.282022679
  250.026666667  416.572956507    7.050893511
  250.880000000  408.490196994   12.145689020
  251.733333333  395.349888094   18.982366688
  252.586666667  375.449693174   28.087353638
  253.440000000  346.582287995   40.122278842
  254.293333333  305.907793342   55.913397643
  255.146666667  249.798830801   76.486466358
  256.000000000  173.653190928  103.107929154
